2.617863266792852528e-02 5.101161504189313245e-01 1.333073800072370751e-01 7.918419706768928812e-01 1.609591892534516511e-01 -5.162687549087936478e-01 1.878482387856861280e-01 7.228851932177333683e-01 8.150021224190375779e-01 3.832913777383011311e-01 -9.540363725856575439e-01 -1.575873565642593732e-02 -7.149968929386687488e-01 -8.699485368124846296e-01 -1.880633686454431519e-01 -4.881286482258759829e-01 -3.977835859663276796e-01 8.503520527205457036e-01 -2.554668393606371879e-01 -5.712527919402354826e-02 1.537292392011042619e-01 2.857534467000522049e-02 -8.423323999477982937e-02 -7.379140565984443345e-01 -2.881046649894747347e-02 4.368405366197076756e-01 5.684594439704859781e-02 -7.437295386719398049e-01 -4.524692279558122365e-01 2.819434741260806732e-01
1.029792079222122680e-01 7.279205941916311318e-01 9.731895568707034094e-01 -9.010127945188517451e-01 -8.302200196110134378e-01 9.319348961678053378e-01 -3.608436446061658032e-02 1.300040875043841915e-01 1.185987309663234512e-01 5.814294371903063752e-01 7.344699774745804266e-01 -9.169909242722760201e-01 -3.890324729138618931e-01 1.960419654703322578e-01 5.664536080884574609e-02 -8.407615609613061647e-01 -5.433600342770870117e-01 -2.274604588718005527e-01 -9.101255666776248976e-01 4.474561965189189916e-01 -9.357876400425912955e-02 2.974706242959370694e-01 -4.368810716962325813e-01 -6.267492338532052454e-01 -8.343854000702450868e-01 6.980321607156079189e-01 6.131777582420350203e-01 8.369639723859709779e-01 6.733451761100559541e-01 -5.005822396396946150e-01
1.387860473989146470e-01 -3.927898751846219394e-01 -5.772542949553187697e-01 -5.308926980353130265e-01 6.401274459135393169e-01 -1.737444382449118141e-01 -7.546934839405650131e-02 9.295460581847201365e-01 -1.220014674974274627e-01 -1.599031121343537087e-01 6.188904020950125595e-01 8.264807565100857900e-01 -7.994665332810959590e-01 3.490289420443584145e-01 -7.231788569014931944e-01 -1.453587014947999023e-01 -9.358472748117667717e-01 -9.658369732821057152e-01 -6.120014902868990969e-01 4.855813415872782812e-01 5.649287022245161882e-01 5.802008254700621315e-01 7.356057551987027487e-01 4.619173413696038288e-01 8.016829825903406537e-01 -1.176285663191878328e-01 -2.185472156250580777e-01 7.847386306773764808e-01 5.325313385507794983e-01 -4.003374663711587456e-01
-7.844189365770879441e-01 -7.676341167202027638e-01 3.683117163225302360e-01 -2.671331895409734258e-01 4.963294874934602863e-01 9.247602311473690495e-01 -5.709760980432199151e-01 8.732932229845040695e-01 5.280620658583266014e-01 1.514909138680560208e-01 2.304509268896959284e-02 4.623369313087064558e-01 5.202268418603566147e-01 8.127457084337696980e-01 -3.850462112842705231e-01 1.319803620005814970e-01 -6.199352624172524973e-01 -2.809743594948439505e-01 4.570438150375955022e-01 9.134704216655122888e-01 7.513255224591302017e-01 5.611023859096309074e-01 3.368400528924730963e-04 -8.864239635330071199e-01 -3.054341883186428852e-01 -5.484130592072973265e-01 -9.060242896951973268e-01 -2.175428892622448540e-01 4.046272677429281206e-01 8.985829958125126637e-01
-4.458904278932052101e-02 -7.676752993478432874e-01 -9.724348791485839527e-01 2.297295159055781077e-01 9.914343798350084835e-01 5.146671354766203521e-01 7.420119490714582877e-01 -8.541990758209692114e-01 -5.459074650574784471e-01 4.450125405636207176e-02 -8.129726686425087223e-03 3.005085899042003739e-02 -4.587587926874867605e-01 2.174802283102648115e-01 6.676090518337376434e-01 6.576408165589526789e-01 1.397555865129183061e-01 -9.758326222848952014e-01 8.206309169906875756e-01 -2.759199763893749324e-01 8.052229139634698996e-01 -9.421728742819783786e-01 -1.704294857737396196e-01 -5.265184877972504118e-01 8.472524599662101252e-01 1.306787976309400356e-01 -9.828677273999641972e-01 2.236911820032516651e-01 2.064334664923228591e-01 -3.188811683905363736e-01
-1.157478774973530466e-01 -6.876779692033718749e-01 8.470391512136672407e-01 -3.336591762440748177e-01 -7.502447796092686083e-01 3.828339552422006520e-01 9.803674917664608746e-01 -8.456012761753894935e-01 6.031867134327086877e-01 -2.893995198487744336e-01 -6.041010231691190668e-02 1.518608236086507191e-01 5.226338394830616352e-01 -3.836315841791906323e-01 -3.533951177210585826e-01 9.030782064604638837e-01 -9.988797682391403754e-01 -1.312312943190896419e-03 -1.751934433566639804e-01 -8.981087102980778170e-02 3.393142158689199661e-02 1.111638677104376249e-01 9.303505424770932564e-01 4.295874094719274172e-01 8.063359053384504538e-01 4.392828697738542232e-01 -8.448097447702138663e-01 -8.914505666259964212e-01 8.621860129772789261e-01 2.697226159415053726e-01
6.171978781264289005e-01 -7.824273639067436115e-01 -5.225158336242743395e-01 -7.901285849607573297e-01 9.015717811414021288e-01 -9.922764632511658078e-01 5.435617364205431734e-01 -2.113552430787650760e-01 -1.111783516292639273e-01 6.143761418403150820e-01 3.728100773350249142e-01 -4.648828521093135713e-01 -3.080460585835809173e-01 -2.896189597920402203e-01 2.850761091170048722e-01 -2.604257319688010330e-01 -3.354104841503802170e-02 -7.018183696256041770e-01 -5.626177354326407087e-01 7.767973454549506052e-01 8.082587084548786827e-02 6.080653017572759111e-01 -4.048882547016785516e-01 -6.786216906215418732e-01 6.406439196764008859e-01 3.568779282744332093e-01 -2.327029623483061194e-01 9.768387597455154836e-01 -1.508119186862320049e-01 2.763604498796869979e-01
5.680925315396945230e-02 -1.389913651205960665e-01 8.237352806712370246e-01 -8.366930573294977247e-01 -9.050010613771597434e-02 7.661559104829538391e-01 -3.412061855509793684e-01 3.795009065429830741e-01 3.345453433645444452e-01 -9.692981262406139553e-01 9.248517922414123404e-01 9.144680799692217477e-03 -9.431724015653080162e-01 -6.101930103325581278e-01 -8.605756780189355304e-02 -7.513145052905612076e-02 6.035715167574962070e-01 8.968487816767072296e-01 8.330804240783853398e-01 -3.883273576027295171e-01 -1.629481981265268331e-01 -7.458137512630895749e-01 5.953125277403001903e-01 -5.320697493672172929e-01 -5.087064221393844399e-01 -8.904392626121826471e-01 -8.711445424370625190e-01 -4.260726218547912225e-01 -9.458075432805368443e-02 4.067038839081142942e-01
-4.108746571535397685e-01 -8.247848355499347583e-01 -6.966265520151981860e-02 5.035001136030734514e-01 6.717038503853376419e-01 -6.799805884373621989e-01 6.425094208890755887e-01 -3.132825111867876267e-02 -7.148522862820105850e-02 -4.786322003212168941e-01 -7.142277997723081029e-01 -4.915946671997031281e-01 7.906738854886341539e-01 3.541671592848258943e-01 8.608423288037598819e-01 -3.625936727450018715e-02 6.298197174099362527e-01 1.244377330437911322e-01 -3.024980598303088630e-01 1.773671310434463688e-01 -2.272938001653099782e-01 3.850814910819855275e-01 9.834361133709856873e-01 -9.292991169087942982e-01 4.464815423417833884e-01 2.200460897474014743e-01 -7.920405181772536274e-01 -3.647225010541674806e-01 -9.603556884338326771e-01 -4.229461830259604316e-01
-4.245918745302561526e-01 -4.734230588917944793e-01 -7.754946612310511522e-01 4.868773378462283308e-01 -1.919266376632746685e-01 5.619688123747872410e-01 -9.147405465336879704e-01 6.116459452940659069e-02 5.779048014506864561e-01 2.062861618651707918e-01 -4.806531259478721285e-01 -3.148801972203163491e-01 5.548517737546854178e-01 -9.708581589065181650e-01 9.837251751916500364e-01 -9.560345500897742266e-01 7.193226504214140782e-01 -3.772462597185426425e-01 -8.050577646319134750e-02 9.639796493226815421e-01 -6.724490446379405295e-01 4.472061245096972115e-01 -9.066966887343024251e-01 5.278127131185705867e-01 8.329537184215192180e-01 5.660782995976949561e-01 5.003500208291591367e-01 -3.681450292144554659e-01 3.799002234971242675e-01 -3.896050312279815131e-01
